digraph Tree {
node [shape=box, style="filled, rounded", color="black", fontname=helvetica] ;
edge [fontname=helvetica] ;
0 [label="sepal length (cm) <= 5.85\ngini = 0.67\nsamples = 97\nvalue = [52, 48, 50]\nclass = setosa", fillcolor="#fefcfb"] ;
1 [label="petal width (cm) <= 0.8\ngini = 0.49\nsamples = 52\nvalue = [52, 31, 2]\nclass = setosa", fillcolor="#f5ceb2"] ;
0 -> 1 [labeldistance=2.5, labelangle=45, headlabel="True"] ;
2 [label="gini = 0.0\nsamples = 33\nvalue = [52, 0, 0]\nclass = setosa", fillcolor="#e58139"] ;
1 -> 2 ;
3 [label="petal width (cm) <= 1.75\ngini = 0.11\nsamples = 19\nvalue = [0, 31, 2]\nclass = versicolor", fillcolor="#46e789"] ;
1 -> 3 ;
4 [label="gini = 0.0\nsamples = 17\nvalue = [0, 31, 0]\nclass = versicolor", fillcolor="#39e581"] ;
3 -> 4 ;
5 [label="gini = 0.0\nsamples = 2\nvalue = [0, 0, 2]\nclass = virginica", fillcolor="#8139e5"] ;
3 -> 5 ;
6 [label="petal length (cm) <= 4.75\ngini = 0.39\nsamples = 45\nvalue = [0, 17, 48]\nclass = virginica", fillcolor="#ae7fee"] ;
0 -> 6 [labeldistance=2.5, labelangle=-45, headlabel="False"] ;
7 [label="gini = 0.0\nsamples = 12\nvalue = [0, 13, 0]\nclass = versicolor", fillcolor="#39e581"] ;
6 -> 7 ;
8 [label="petal length (cm) <= 5.15\ngini = 0.14\nsamples = 33\nvalue = [0, 4, 48]\nclass = virginica", fillcolor="#8c49e7"] ;
6 -> 8 ;
9 [label="petal width (cm) <= 1.7\ngini = 0.38\nsamples = 10\nvalue = [0, 4, 12]\nclass = virginica", fillcolor="#ab7bee"] ;
8 -> 9 ;
10 [label="petal width (cm) <= 1.55\ngini = 0.38\nsamples = 4\nvalue = [0, 3, 1]\nclass = versicolor", fillcolor="#7beeab"] ;
9 -> 10 ;
11 [label="petal length (cm) <= 5.0\ngini = 0.44\nsamples = 3\nvalue = [0, 2, 1]\nclass = versicolor", fillcolor="#9cf2c0"] ;
10 -> 11 ;
12 [label="gini = 0.0\nsamples = 2\nvalue = [0, 2, 0]\nclass = versicolor", fillcolor="#39e581"] ;
11 -> 12 ;
13 [label="gini = 0.0\nsamples = 1\nvalue = [0, 0, 1]\nclass = virginica", fillcolor="#8139e5"] ;
11 -> 13 ;
14 [label="gini = 0.0\nsamples = 1\nvalue = [0, 1, 0]\nclass = versicolor", fillcolor="#39e581"] ;
10 -> 14 ;
15 [label="sepal length (cm) <= 5.95\ngini = 0.15\nsamples = 6\nvalue = [0, 1, 11]\nclass = virginica", fillcolor="#8c4be7"] ;
9 -> 15 ;
16 [label="petal length (cm) <= 4.95\ngini = 0.5\nsamples = 2\nvalue = [0, 1, 1]\nclass = versicolor", fillcolor="#ffffff"] ;
15 -> 16 ;
17 [label="gini = 0.0\nsamples = 1\nvalue = [0, 1, 0]\nclass = versicolor", fillcolor="#39e581"] ;
16 -> 17 ;
18 [label="gini = 0.0\nsamples = 1\nvalue = [0, 0, 1]\nclass = virginica", fillcolor="#8139e5"] ;
16 -> 18 ;
19 [label="gini = 0.0\nsamples = 4\nvalue = [0, 0, 10]\nclass = virginica", fillcolor="#8139e5"] ;
15 -> 19 ;
20 [label="gini = 0.0\nsamples = 23\nvalue = [0, 0, 36]\nclass = virginica", fillcolor="#8139e5"] ;
8 -> 20 ;
}